{
  "input_nodes": 5,
  "hidden_nodes": 8,
  "output_nodes": 2,
  "weights_ih": {
    "rows": 8,
    "cols": 5,
    "data": [
      [
        -0.9132851798157748,
        -0.5197353318466402,
        0.9204706518563031,
        -0.7489229637258354,
        0.05004391412822473
      ],
      [
        0.6420248534011974,
        0.7151363078741348,
        0.8614766401014289,
        0.8004045643069566,
        0.5983088162534536
      ],
      [
        0.31035810545649856,
        0.63306761716334,
        0.1275903318328413,
        0.48160175093265023,
        -0.171874706704223
      ],
      [
        -0.5781298866165043,
        -0.9237243044597898,
        -0.5657668906626561,
        0.8476223340840403,
        -0.9858091553944579
      ],
      [
        0.9486916303993138,
        0.4593787790827957,
        0.36920164656857457,
        -0.2795649574877186,
        -0.6585899542332063
      ],
      [
        -0.5136598205469212,
        -0.9550649708744943,
        -0.7282098173161935,
        -0.6229996213700719,
        0.3617934892039978
      ],
      [
        0.763854884653568,
        -0.5558428395013268,
        0.3130523401190173,
        0.20040570589549622,
        -0.009739710829708592
      ],
      [
        0.12532575580960081,
        0.7981111762568167,
        0.9814086934684658,
        -0.18400700525145153,
        -0.9963842386057018
      ]
    ]
  },
  "weights_ho": {
    "rows": 2,
    "cols": 8,
    "data": [
      [
        0.9324721415822572,
        -0.5860322145930419,
        -0.4387331286354694,
        -0.46713205111401734,
        0.8332514875706734,
        -0.09159800083502256,
        0.40006890150887564,
        0.0427957090593587
      ],
      [
        0.2747934252181512,
        0.3891833819068573,
        0.07672345656768798,
        0.08368002864758228,
        -0.491230305577564,
        0.08018249326567473,
        0.19356992366299552,
        -0.98181586755183
      ]
    ]
  },
  "bias_h": {
    "rows": 8,
    "cols": 1,
    "data": [
      [
        0.46434989462793475
      ],
      [
        -0.7686420396485141
      ],
      [
        -0.022710289183597077
      ],
      [
        0.6260723047080967
      ],
      [
        0.5069686001450182
      ],
      [
        0.5663673009521486
      ],
      [
        0.6628055007660847
      ],
      [
        -0.5502485220552562
      ]
    ]
  },
  "bias_o": {
    "rows": 2,
    "cols": 1,
    "data": [
      [
        -0.11590218067550806
      ],
      [
        0.22458323575440575
      ]
    ]
  },
  "learning_rate": 0.1,
  "activation_function": {}
}
