{
  "input_nodes": 5,
  "hidden_nodes": 8,
  "output_nodes": 2,
  "weights_ih": {
    "rows": 8,
    "cols": 5,
    "data": [
      [
        0.8197707821796261,
        -0.3753806527723298,
        0.7016058964701322,
        -0.25101045511517084,
        -0.8941134277914902
      ],
      [
        -0.3330551767792129,
        -0.1439163908954595,
        0.8295115248567608,
        -0.7915789838779532,
        -0.5365798412968434
      ],
      [
        -0.3113158434716543,
        0.5638879269379422,
        0.353563505876175,
        0.24255301593853495,
        -0.1825426917700952
      ],
      [
        0.8295021365989004,
        0.15879632564354385,
        0.5108522685797094,
        0.5245159645392339,
        0.9732320307693474
      ],
      [
        -0.6839020126368038,
        0.8176919799769742,
        -0.5251334930617801,
        0.582026844288138,
        0.4752705524814136
      ],
      [
        -0.10360181342931529,
        -0.5693176985854169,
        -0.12832364027762821,
        -0.30623010137644435,
        0.934350770858337
      ],
      [
        0.6024686857183217,
        0.4980552117205832,
        0.6174527713937898,
        0.5505482334237084,
        -0.5361375245225646
      ],
      [
        0.32950353217729056,
        -0.409560919978905,
        0.2569608734901676,
        0.19241315239281098,
        0.49368590242058685
      ]
    ]
  },
  "weights_ho": {
    "rows": 2,
    "cols": 8,
    "data": [
      [
        0.014458332687732778,
        0.6921601139278226,
        -0.8241919945149236,
        -0.5806760962833573,
        0.7879020583872451,
        -0.26626256591375697,
        -0.8653522157350646,
        0.5107703417651175
      ],
      [
        -0.31536535499940443,
        -0.4489833535616712,
        -0.44868818655930554,
        -0.35635535155053555,
        0.8642594496405946,
        0.8142867854527478,
        -0.41378076350321225,
        0.34452182700801837
      ]
    ]
  },
  "bias_h": {
    "rows": 8,
    "cols": 1,
    "data": [
      [
        -0.782488025750673
      ],
      [
        0.1993584992345725
      ],
      [
        0.0021181086316461872
      ],
      [
        0.16167219746491757
      ],
      [
        0.8458576260498027
      ],
      [
        -0.8847642613206723
      ],
      [
        0.430374045484863
      ],
      [
        -0.23759488090565473
      ]
    ]
  },
  "bias_o": {
    "rows": 2,
    "cols": 1,
    "data": [
      [
        0.27061248644205893
      ],
      [
        -0.19615933358757864
      ]
    ]
  },
  "learning_rate": 0.1,
  "activation_function": {}
}
